<?xml version="1.0"?>
<opencv_storage>
<cascade>
  <stageType>BOOST</stageType>
  <featureType>HAAR</featureType>
  <height>24</height>
  <width>32</width>
  <stageParams>
    <boostType>GAB</boostType>
    <minHitRate>9.9500000476837158e-01</minHitRate>
    <maxFalseAlarm>5.0000000000000000e-01</maxFalseAlarm>
    <weightTrimRate>9.4999998807907104e-01</weightTrimRate>
    <maxDepth>1</maxDepth>
    <maxWeakCount>100</maxWeakCount></stageParams>
  <featureParams>
    <maxCatCount>0</maxCatCount>
    <featSize>1</featSize>
    <mode>BASIC</mode></featureParams>
  <stageNum>20</stageNum>
  <stages>
    <!-- stage 0 -->
    <_>
      <maxWeakCount>5</maxWeakCount>
      <stageThreshold>-8.3664244413375854e-01</stageThreshold>
      <weakClassifiers>
        <_>
          <internalNodes>
            0 -1 50 -2.1218318492174149e-02</internalNodes>
          <leafValues>
            7.6271188259124756e-01 -8.0664652585983276e-01</leafValues></_>
        <_>
          <internalNodes>
            0 -1 1 -4.4591757655143738e-01</internalNodes>
          <leafValues>
            8.0507344007492065e-01 -5.7760643959045410e-01</leafValues></_>
        <_>
          <internalNodes>
            0 -1 57 1.7993457615375519e-02</internalNodes>
          <leafValues>
            -4.9299153685569763e-01 7.1371936798095703e-01</leafValues></_>
        <_>
          <internalNodes>
            0 -1 112 1.7239208682440221e-04</internalNodes>
          <leafValues>
            3.2395267486572266e-01 -8.8606858253479004e-01</leafValues></_>
        <_>
          <internalNodes>
            0 -1 58 -1.2200305238366127e-02</internalNodes>
          <leafValues>
            7.1664941310882568e-01 -4.3296244740486145e-01</leafValues></_></weakClassifiers></_>
    <!-- stage 1 -->
    <_>
      <maxWeakCount>5</maxWeakCount>
      <stageThreshold>-1.4098329544067383e+00</stageThreshold>
      <weakClassifiers>
        <_>
          <internalNodes>
            0 -1 24 -4.0315616130828857e-01</internalNodes>
          <leafValues>
            7.7272725105285645e-01 -7.3988437652587891e-01</leafValues></_>
        <_>
          <internalNodes>
            0 -1 85 -3.5544171929359436e-02</internalNodes>
          <leafValues>
            7.7185869216918945e-01 -4.4393321871757507e-01</leafValues></_>
        <_>
          <internalNodes>
            0 -1 116 -2.5169778382405639e-04</internalNodes>
          <leafValues>
            -8.3316272497177124e-01 3.2074785232543945e-01</leafValues></_>
        <_>
          <internalNodes>
            0 -1 106 -1.6080243221949786e-04</internalNodes>
          <leafValues>
            -7.8750139474868774e-01 2.6271113753318787e-01</leafValues></_>
        <_>
          <internalNodes>
            0 -1 98 6.8687135353684425e-04</internalNodes>
          <leafValues>
            2.7175211906433105e-01 -8.0947428941726685e-01</leafValues></_></weakClassifiers></_>
    <!-- stage 2 -->
    <_>
      <maxWeakCount>5</maxWeakCount>
      <stageThreshold>-1.0183628797531128e+00</stageThreshold>
      <weakClassifiers>
        <_>
          <internalNodes>
            0 -1 16 -5.3235387802124023e-01</internalNodes>
          <leafValues>
            8.3783781528472900e-01 -7.1671390533447266e-01</leafValues></_>
        <_>
          <internalNodes>
            0 -1 40 -9.0444982051849365e-03</internalNodes>
          <leafValues>
            6.0743218660354614e-01 -4.6174472570419312e-01</leafValues></_>
        <_>
          <internalNodes>
            0 -1 115 1.4609412755817175e-03</internalNodes>
          <leafValues>
            2.4463553726673126e-01 -7.8744423389434814e-01</leafValues></_>
        <_>
          <internalNodes>
            0 -1 38 1.5806049108505249e-02</internalNodes>
          <leafValues>
            -3.6592128872871399e-01 5.6210589408874512e-01</leafValues></_>
        <_>
          <internalNodes>
            0 -1 111 -1.6989091411232948e-02</internalNodes>
          <leafValues>
            -7.8779542446136475e-01 3.4211137890815735e-01</leafValues></_></weakClassifiers></_>
    <!-- stage 3 -->
    <_>
      <maxWeakCount>4</maxWeakCount>
      <stageThreshold>-1.0134179592132568e+00</stageThreshold>
      <weakClassifiers>
        <_>
          <internalNodes>
            0 -1 33 -3.2926777005195618e-01</internalNodes>
          <leafValues>
            8.6046510934829712e-01 -7.4639767408370972e-01</leafValues></_>
        <_>
          <internalNodes>
            0 -1 30 -1.0552040293987375e-05</internalNodes>
          <leafValues>
            4.4888386130332947e-01 -5.8937853574752808e-01</leafValues></_>
        <_>
          <internalNodes>
            0 -1 54 -2.1955338120460510e-01</internalNodes>
          <leafValues>
            8.2522571086883545e-01 -3.6690482497215271e-01</leafValues></_>
        <_>
          <internalNodes>
            0 -1 64 3.9422228932380676e-02</internalNodes>
          <leafValues>
            -3.4899923205375671e-01 7.1825647354125977e-01</leafValues></_></weakClassifiers></_>
    <!-- stage 4 -->
    <_>
      <maxWeakCount>4</maxWeakCount>
      <stageThreshold>-1.0829050540924072e+00</stageThreshold>
      <weakClassifiers>
        <_>
          <internalNodes>
            0 -1 15 -5.6251657009124756e-01</internalNodes>
          <leafValues>
            5.9183675050735474e-01 -7.3607039451599121e-01</leafValues></_>
        <_>
          <internalNodes>
            0 -1 43 2.0597134716808796e-03</internalNodes>
          <leafValues>
            -5.1995652914047241e-01 4.1512009501457214e-01</leafValues></_>
        <_>
          <internalNodes>
            0 -1 82 1.5755118802189827e-03</internalNodes>
          <leafValues>
            -3.3560955524444580e-01 5.9301155805587769e-01</leafValues></_>
        <_>
          <internalNodes>
            0 -1 81 6.9228211941663176e-05</internalNodes>
          <leafValues>
            -3.5634514689445496e-01 5.0873136520385742e-01</leafValues></_></weakClassifiers></_>
    <!-- stage 5 -->
    <_>
      <maxWeakCount>6</maxWeakCount>
      <stageThreshold>-1.1390030384063721e+00</stageThreshold>
      <weakClassifiers>
        <_>
          <internalNodes>
            0 -1 75 -3.2531961798667908e-02</internalNodes>
          <leafValues>
            5.7692307233810425e-01 -7.4556213617324829e-01</leafValues></_>
        <_>
          <internalNodes>
            0 -1 26 -2.1716196089982986e-02</internalNodes>
          <leafValues>
            5.5631583929061890e-01 -4.8632428050041199e-01</leafValues></_>
        <_>
          <internalNodes>
            0 -1 35 6.4538316801190376e-03</internalNodes>
          <leafValues>
            -4.9697768688201904e-01 4.3403893709182739e-01</leafValues></_>
        <_>
          <internalNodes>
            0 -1 2 -4.3140117079019547e-02</internalNodes>
          <leafValues>
            4.6159902215003967e-01 -5.1397478580474854e-01</leafValues></_>
        <_>
          <internalNodes>
            0 -1 77 -2.6113225612789392e-04</internalNodes>
          <leafValues>
            7.5141870975494385e-01 -2.9559436440467834e-01</leafValues></_>
        <_>
          <internalNodes>
            0 -1 49 -1.0552040293987375e-05</internalNodes>
          <leafValues>
            4.6841353178024292e-01 -4.5428502559661865e-01</leafValues></_></weakClassifiers></_>
    <!-- stage 6 -->
    <_>
      <maxWeakCount>5</maxWeakCount>
      <stageThreshold>-1.0533740520477295e+00</stageThreshold>
      <weakClassifiers>
        <_>
          <internalNodes>
            0 -1 28 -6.8941071629524231e-02</internalNodes>
          <leafValues>
            5.0000000000000000e-01 -7.0520234107971191e-01</leafValues></_>
        <_>
          <internalNodes>
            0 -1 63 -4.1021136566996574e-03</internalNodes>
          <leafValues>
            4.9652636051177979e-01 -4.4339239597320557e-01</leafValues></_>
        <_>
          <internalNodes>
            0 -1 105 1.2875566608272493e-04</internalNodes>
          <leafValues>
            2.9032960534095764e-01 -6.9448453187942505e-01</leafValues></_>
        <_>
          <internalNodes>
            0 -1 100 -2.3029520889394917e-05</internalNodes>
          <leafValues>
            4.4483947753906250e-01 -4.0123358368873596e-01</leafValues></_>
        <_>
          <internalNodes>
            0 -1 37 2.5593722239136696e-04</internalNodes>
          <leafValues>
            3.9522007107734680e-01 -5.9505313634872437e-01</leafValues></_></weakClassifiers></_>
    <!-- stage 7 -->
    <_>
      <maxWeakCount>5</maxWeakCount>
      <stageThreshold>-1.4071229696273804e+00</stageThreshold>
      <weakClassifiers>
        <_>
          <internalNodes>
            0 -1 25 -2.9473876953125000e-01</internalNodes>
          <leafValues>
            6.8181818723678589e-01 -7.2832369804382324e-01</leafValues></_>
        <_>
          <internalNodes>
            0 -1 23 2.7134770061820745e-04</internalNodes>
          <leafValues>
            1.0400049388408661e-01 -8.8406378030776978e-01</leafValues></_>
        <_>
          <internalNodes>
            0 -1 10 4.3257200741209090e-04</internalNodes>
          <leafValues>
            2.0412527024745941e-01 -8.5258758068084717e-01</leafValues></_>
        <_>
          <internalNodes>
            0 -1 89 9.3965521082282066e-03</internalNodes>
          <leafValues>
            -3.4878608584403992e-01 6.3351225852966309e-01</leafValues></_>
        <_>
          <internalNodes>
            0 -1 117 -2.2589223226532340e-04</internalNodes>
          <leafValues>
            -6.2286669015884399e-01 3.4992533922195435e-01</leafValues></_></weakClassifiers></_>
    <!-- stage 8 -->
    <_>
      <maxWeakCount>5</maxWeakCount>
      <stageThreshold>-1.2036108970642090e+00</stageThreshold>
      <weakClassifiers>
        <_>
          <internalNodes>
            0 -1 55 -5.2648149430751801e-02</internalNodes>
          <leafValues>
            5.4285717010498047e-01 -6.7887324094772339e-01</leafValues></_>
        <_>
          <internalNodes>
            0 -1 102 -7.3483693995513022e-05</internalNodes>
          <leafValues>
            -7.2641235589981079e-01 1.3660551607608795e-01</leafValues></_>
        <_>
          <internalNodes>
            0 -1 83 8.4231630899012089e-04</internalNodes>
          <leafValues>
            -5.0502711534500122e-01 3.4867843985557556e-01</leafValues></_>
        <_>
          <internalNodes>
            0 -1 6 3.9243988692760468e-02</internalNodes>
          <leafValues>
            2.1664896607398987e-01 -7.5582253932952881e-01</leafValues></_>
        <_>
          <internalNodes>
            0 -1 73 -8.5303168743848801e-03</internalNodes>
          <leafValues>
            4.6425661444664001e-01 -3.6365270614624023e-01</leafValues></_></weakClassifiers></_>
    <!-- stage 9 -->
    <_>
      <maxWeakCount>6</maxWeakCount>
      <stageThreshold>-1.1393239498138428e+00</stageThreshold>
      <weakClassifiers>
        <_>
          <internalNodes>
            0 -1 76 4.5654147863388062e-02</internalNodes>
          <leafValues>
            -6.9800567626953125e-01 5.8974361419677734e-01</leafValues></_>
        <_>
          <internalNodes>
            0 -1 104 -1.4333159197121859e-04</internalNodes>
          <leafValues>
            -7.5568270683288574e-01 1.0154464840888977e-01</leafValues></_>
        <_>
          <internalNodes>
            0 -1 96 -8.5092969238758087e-03</internalNodes>
          <leafValues>
            3.6206579208374023e-01 -4.0263253450393677e-01</leafValues></_>
        <_>
          <internalNodes>
            0 -1 107 1.3838344602845609e-04</internalNodes>
          <leafValues>
            2.3664341866970062e-01 -5.9412056207656860e-01</leafValues></_>
        <_>
          <internalNodes>
            0 -1 47 1.7725320532917976e-02</internalNodes>
          <leafValues>
            -2.5827175378799438e-01 5.7903558015823364e-01</leafValues></_>
        <_>
          <internalNodes>
            0 -1 114 2.1663785446435213e-04</internalNodes>
          <leafValues>
            2.8164002299308777e-01 -6.3751804828643799e-01</leafValues></_></weakClassifiers></_>
    <!-- stage 10 -->
    <_>
      <maxWeakCount>4</maxWeakCount>
      <stageThreshold>-9.4531261920928955e-01</stageThreshold>
      <weakClassifiers>
        <_>
          <internalNodes>
            0 -1 67 -2.4053424596786499e-02</internalNodes>
          <leafValues>
            4.0000000596046448e-01 -7.1176469326019287e-01</leafValues></_>
        <_>
          <internalNodes>
            0 -1 79 -1.7766540404409170e-03</internalNodes>
          <leafValues>
            5.5202245712280273e-01 -4.1811275482177734e-01</leafValues></_>
        <_>
          <internalNodes>
            0 -1 62 -1.8775425851345062e-03</internalNodes>
          <leafValues>
            4.7821742296218872e-01 -3.7220889329910278e-01</leafValues></_>
        <_>
          <internalNodes>
            0 -1 59 2.4687580298632383e-03</internalNodes>
          <leafValues>
            -2.9365259408950806e-01 6.7389786243438721e-01</leafValues></_></weakClassifiers></_>
    <!-- stage 11 -->
    <_>
      <maxWeakCount>8</maxWeakCount>
      <stageThreshold>-1.2038002014160156e+00</stageThreshold>
      <weakClassifiers>
        <_>
          <internalNodes>
            0 -1 13 -3.8100123405456543e-01</internalNodes>
          <leafValues>
            1.7241379618644714e-01 -6.9879519939422607e-01</leafValues></_>
        <_>
          <internalNodes>
            0 -1 51 -2.2593127563595772e-02</internalNodes>
          <leafValues>
            2.7210548520088196e-01 -4.7807788848876953e-01</leafValues></_>
        <_>
          <internalNodes>
            0 -1 119 8.3197257481515408e-04</internalNodes>
          <leafValues>
            1.6303563117980957e-01 -7.9726821184158325e-01</leafValues></_>
        <_>
          <internalNodes>
            0 -1 14 -1.2767222870024852e-05</internalNodes>
          <leafValues>
            2.9363441467285156e-01 -4.8248335719108582e-01</leafValues></_>
        <_>
          <internalNodes>
            0 -1 113 8.0963468644768000e-04</internalNodes>
          <leafValues>
            2.3348340392112732e-01 -7.1210849285125732e-01</leafValues></_>
        <_>
          <internalNodes>
            0 -1 19 -7.6836999505758286e-03</internalNodes>
          <leafValues>
            4.4549697637557983e-01 -4.1263115406036377e-01</leafValues></_>
        <_>
          <internalNodes>
            0 -1 99 -1.1925928447453771e-05</internalNodes>
          <leafValues>
            3.8307043910026550e-01 -4.0495526790618896e-01</leafValues></_>
        <_>
          <internalNodes>
            0 -1 22 2.6864540996029973e-04</internalNodes>
          <leafValues>
            2.5807204842567444e-01 -6.8529677391052246e-01</leafValues></_></weakClassifiers></_>
    <!-- stage 12 -->
    <_>
      <maxWeakCount>6</maxWeakCount>
      <stageThreshold>-1.0526779890060425e+00</stageThreshold>
      <weakClassifiers>
        <_>
          <internalNodes>
            0 -1 34 -3.3088676631450653e-02</internalNodes>
          <leafValues>
            5.2941179275512695e-01 -6.7415732145309448e-01</leafValues></_>
        <_>
          <internalNodes>
            0 -1 118 -2.0641920855268836e-05</internalNodes>
          <leafValues>
            2.6081958413124084e-01 -4.9910143017768860e-01</leafValues></_>
        <_>
          <internalNodes>
            0 -1 21 2.1418677642941475e-03</internalNodes>
          <leafValues>
            1.4692080020904541e-01 -8.4676110744476318e-01</leafValues></_>
        <_>
          <internalNodes>
            0 -1 94 -1.3673224020749331e-03</internalNodes>
          <leafValues>
            4.9327081441879272e-01 -2.7579972147941589e-01</leafValues></_>
        <_>
          <internalNodes>
            0 -1 52 -2.5346597656607628e-02</internalNodes>
          <leafValues>
            5.9415441751480103e-01 -2.6273807883262634e-01</leafValues></_>
        <_>
          <internalNodes>
            0 -1 86 6.4480619039386511e-04</internalNodes>
          <leafValues>
            -2.4772323668003082e-01 6.1658746004104614e-01</leafValues></_></weakClassifiers></_>
    <!-- stage 13 -->
    <_>
      <maxWeakCount>7</maxWeakCount>
      <stageThreshold>-1.1329673528671265e+00</stageThreshold>
      <weakClassifiers>
        <_>
          <internalNodes>
            0 -1 11 -5.2067138254642487e-02</internalNodes>
          <leafValues>
            3.0232557654380798e-01 -6.7723345756530762e-01</leafValues></_>
        <_>
          <internalNodes>
            0 -1 88 2.7291461825370789e-02</internalNodes>
          <leafValues>
            -3.8112846016883850e-01 3.3921423554420471e-01</leafValues></_>
        <_>
          <internalNodes>
            0 -1 18 -4.4232781976461411e-02</internalNodes>
          <leafValues>
            -8.0788886547088623e-01 1.6423323750495911e-01</leafValues></_>
        <_>
          <internalNodes>
            0 -1 65 1.3942243822384626e-04</internalNodes>
          <leafValues>
            -3.3077773451805115e-01 4.5322561264038086e-01</leafValues></_>
        <_>
          <internalNodes>
            0 -1 17 -9.7115352749824524e-02</internalNodes>
          <leafValues>
            5.5188471078872681e-01 -2.7301707863807678e-01</leafValues></_>
        <_>
          <internalNodes>
            0 -1 29 1.9315241661388427e-04</internalNodes>
          <leafValues>
            -3.7105914950370789e-01 4.6679303050041199e-01</leafValues></_>
        <_>
          <internalNodes>
            0 -1 4 -4.9106293590739369e-04</internalNodes>
          <leafValues>
            -7.2876012325286865e-01 2.0379129052162170e-01</leafValues></_></weakClassifiers></_>
    <!-- stage 14 -->
    <_>
      <maxWeakCount>8</maxWeakCount>
      <stageThreshold>-9.4226509332656860e-01</stageThreshold>
      <weakClassifiers>
        <_>
          <internalNodes>
            0 -1 61 -3.7808328866958618e-02</internalNodes>
          <leafValues>
            6.1904764175415039e-01 -6.3685637712478638e-01</leafValues></_>
        <_>
          <internalNodes>
            0 -1 70 1.7079876270145178e-03</internalNodes>
          <leafValues>
            -5.1780241727828979e-01 2.9108169674873352e-01</leafValues></_>
        <_>
          <internalNodes>
            0 -1 103 -2.3753480490995571e-05</internalNodes>
          <leafValues>
            3.1643536686897278e-01 -4.4308030605316162e-01</leafValues></_>
        <_>
          <internalNodes>
            0 -1 44 -2.5391297414898872e-02</internalNodes>
          <leafValues>
            4.9497407674789429e-01 -2.7145639061927795e-01</leafValues></_>
        <_>
          <internalNodes>
            0 -1 45 1.7896130681037903e-02</internalNodes>
          <leafValues>
            -2.8504356741905212e-01 5.3375822305679321e-01</leafValues></_>
        <_>
          <internalNodes>
            0 -1 42 -3.1460370868444443e-02</internalNodes>
          <leafValues>
            4.7359552979469299e-01 -3.3471652865409851e-01</leafValues></_>
        <_>
          <internalNodes>
            0 -1 97 1.8030373030342162e-04</internalNodes>
          <leafValues>
            2.7388438582420349e-01 -5.4954731464385986e-01</leafValues></_>
        <_>
          <internalNodes>
            0 -1 5 -6.2528036534786224e-02</internalNodes>
          <leafValues>
            6.0368227958679199e-01 -2.3859250545501709e-01</leafValues></_></weakClassifiers></_>
    <!-- stage 15 -->
    <_>
      <maxWeakCount>7</maxWeakCount>
      <stageThreshold>-1.4458371400833130e+00</stageThreshold>
      <weakClassifiers>
        <_>
          <internalNodes>
            0 -1 80 -2.9704269021749496e-02</internalNodes>
          <leafValues>
            2.3404255509376526e-01 -6.7930030822753906e-01</leafValues></_>
        <_>
          <internalNodes>
            0 -1 46 -6.3499421812593937e-03</internalNodes>
          <leafValues>
            3.3848884701728821e-01 -4.3386039137840271e-01</leafValues></_>
        <_>
          <internalNodes>
            0 -1 66 7.5382711365818977e-03</internalNodes>
          <leafValues>
            1.3167783617973328e-01 -8.4945327043533325e-01</leafValues></_>
        <_>
          <internalNodes>
            0 -1 36 -5.0780638121068478e-03</internalNodes>
          <leafValues>
            3.9601066708564758e-01 -3.2411876320838928e-01</leafValues></_>
        <_>
          <internalNodes>
            0 -1 53 -2.3417198099195957e-04</internalNodes>
          <leafValues>
            5.6592899560928345e-01 -2.2141292691230774e-01</leafValues></_>
        <_>
          <internalNodes>
            0 -1 110 -2.3113239876693115e-05</internalNodes>
          <leafValues>
            3.3668547868728638e-01 -3.6955326795578003e-01</leafValues></_>
        <_>
          <internalNodes>
            0 -1 72 1.2062081077601761e-04</internalNodes>
          <leafValues>
            -3.3661121129989624e-01 3.9425534009933472e-01</leafValues></_></weakClassifiers></_>
    <!-- stage 16 -->
    <_>
      <maxWeakCount>8</maxWeakCount>
      <stageThreshold>-1.0005522966384888e+00</stageThreshold>
      <weakClassifiers>
        <_>
          <internalNodes>
            0 -1 93 2.8713732957839966e-02</internalNodes>
          <leafValues>
            -6.1477571725845337e-01 1.</leafValues></_>
        <_>
          <internalNodes>
            0 -1 48 -7.7331149950623512e-03</internalNodes>
          <leafValues>
            3.3471298217773438e-01 -3.9927423000335693e-01</leafValues></_>
        <_>
          <internalNodes>
            0 -1 109 -6.6700325987767428e-05</internalNodes>
          <leafValues>
            -6.8713468313217163e-01 1.9186049699783325e-01</leafValues></_>
        <_>
          <internalNodes>
            0 -1 31 -1.0089611634612083e-02</internalNodes>
          <leafValues>
            5.0629496574401855e-01 -2.6061862707138062e-01</leafValues></_>
        <_>
          <internalNodes>
            0 -1 78 6.3075171783566475e-04</internalNodes>
          <leafValues>
            2.3425073921680450e-01 -7.0458334684371948e-01</leafValues></_>
        <_>
          <internalNodes>
            0 -1 32 1.0226432641502470e-04</internalNodes>
          <leafValues>
            1.7915707826614380e-01 -7.0294678211212158e-01</leafValues></_>
        <_>
          <internalNodes>
            0 -1 91 -1.3436777226161212e-04</internalNodes>
          <leafValues>
            -5.6326425075531006e-01 2.1541261672973633e-01</leafValues></_>
        <_>
          <internalNodes>
            0 -1 84 -1.0545835830271244e-03</internalNodes>
          <leafValues>
            3.9226943254470825e-01 -3.5054689645767212e-01</leafValues></_></weakClassifiers></_>
    <!-- stage 17 -->
    <_>
      <maxWeakCount>8</maxWeakCount>
      <stageThreshold>-1.0022327899932861e+00</stageThreshold>
      <weakClassifiers>
        <_>
          <internalNodes>
            0 -1 7 -4.4192624092102051e-01</internalNodes>
          <leafValues>
            2.0833332836627960e-01 -6.7836254835128784e-01</leafValues></_>
        <_>
          <internalNodes>
            0 -1 90 6.3590370118618011e-03</internalNodes>
          <leafValues>
            -3.1282716989517212e-01 4.3529802560806274e-01</leafValues></_>
        <_>
          <internalNodes>
            0 -1 20 -3.9350673556327820e-02</internalNodes>
          <leafValues>
            -1. 1.1083080619573593e-01</leafValues></_>
        <_>
          <internalNodes>
            0 -1 71 6.3139043748378754e-02</internalNodes>
          <leafValues>
            1.1646467447280884e-01 -1.</leafValues></_>
        <_>
          <internalNodes>
            0 -1 92 2.4441727437078953e-03</internalNodes>
          <leafValues>
            -3.6572372913360596e-01 3.0235365033149719e-01</leafValues></_>
        <_>
          <internalNodes>
            0 -1 69 -2.5355264544487000e-02</internalNodes>
          <leafValues>
            -8.0946761369705200e-01 1.4137789607048035e-01</leafValues></_>
        <_>
          <internalNodes>
            0 -1 56 8.2681044936180115e-02</internalNodes>
          <leafValues>
            7.8919023275375366e-02 -1.</leafValues></_>
        <_>
          <internalNodes>
            0 -1 27 -1.1388651910237968e-04</internalNodes>
          <leafValues>
            -5.6355851888656616e-01 1.8985643982887268e-01</leafValues></_></weakClassifiers></_>
    <!-- stage 18 -->
    <_>
      <maxWeakCount>7</maxWeakCount>
      <stageThreshold>-9.8988151550292969e-01</stageThreshold>
      <weakClassifiers>
        <_>
          <internalNodes>
            0 -1 87 -1.4833476394414902e-02</internalNodes>
          <leafValues>
            3.3333334326744080e-01 -6.6101694107055664e-01</leafValues></_>
        <_>
          <internalNodes>
            0 -1 41 1.0866134289244656e-05</internalNodes>
          <leafValues>
            -4.0651202201843262e-01 2.8341630101203918e-01</leafValues></_>
        <_>
          <internalNodes>
            0 -1 12 -7.7639135997742414e-04</internalNodes>
          <leafValues>
            -4.8995676636695862e-01 2.5506040453910828e-01</leafValues></_>
        <_>
          <internalNodes>
            0 -1 3 -3.4717451781034470e-03</internalNodes>
          <leafValues>
            3.2774904370307922e-01 -4.3428930640220642e-01</leafValues></_>
        <_>
          <internalNodes>
            0 -1 39 -2.7375450372346677e-05</internalNodes>
          <leafValues>
            -3.8199621438980103e-01 3.3995008468627930e-01</leafValues></_>
        <_>
          <internalNodes>
            0 -1 60 -1.7821984365582466e-03</internalNodes>
          <leafValues>
            3.8284820318222046e-01 -3.5818266868591309e-01</leafValues></_>
        <_>
          <internalNodes>
            0 -1 108 -3.3933501981664449e-05</internalNodes>
          <leafValues>
            3.5039886832237244e-01 -4.1481932997703552e-01</leafValues></_></weakClassifiers></_>
    <!-- stage 19 -->
    <_>
      <maxWeakCount>7</maxWeakCount>
      <stageThreshold>-1.1072633266448975e+00</stageThreshold>
      <weakClassifiers>
        <_>
          <internalNodes>
            0 -1 8 -2.2713538259267807e-02</internalNodes>
          <leafValues>
            4.7619048506021500e-02 -6.8807339668273926e-01</leafValues></_>
        <_>
          <internalNodes>
            0 -1 74 3.8954825140535831e-03</internalNodes>
          <leafValues>
            -4.7725808620452881e-01 2.2615416347980499e-01</leafValues></_>
        <_>
          <internalNodes>
            0 -1 9 -2.2856618670630269e-05</internalNodes>
          <leafValues>
            3.0362236499786377e-01 -3.7913873791694641e-01</leafValues></_>
        <_>
          <internalNodes>
            0 -1 0 1.4936644583940506e-04</internalNodes>
          <leafValues>
            2.2095510363578796e-01 -5.7967740297317505e-01</leafValues></_>
        <_>
          <internalNodes>
            0 -1 101 -1.0866134289244656e-05</internalNodes>
          <leafValues>
            2.3497128486633301e-01 -5.0343877077102661e-01</leafValues></_>
        <_>
          <internalNodes>
            0 -1 95 1.3145150151103735e-03</internalNodes>
          <leafValues>
            -2.5389227271080017e-01 5.4135435819625854e-01</leafValues></_>
        <_>
          <internalNodes>
            0 -1 68 2.1340475359465927e-04</internalNodes>
          <leafValues>
            -4.4220241904258728e-01 3.6371955275535583e-01</leafValues></_></weakClassifiers></_></stages>
  <features>
    <_>
      <rects>
        <_>
          0 0 2 8 -1.</_>
        <_>
          0 0 1 4 2.</_>
        <_>
          1 4 1 4 2.</_></rects>
      <tilted>0</tilted></_>
    <_>
      <rects>
        <_>
          0 0 30 24 -1.</_>
        <_>
          10 0 10 24 3.</_></rects>
      <tilted>0</tilted></_>
    <_>
      <rects>
        <_>
          0 0 25 16 -1.</_>
        <_>
          0 8 25 8 2.</_></rects>
      <tilted>0</tilted></_>
    <_>
      <rects>
        <_>
          0 0 32 2 -1.</_>
        <_>
          0 1 32 1 2.</_></rects>
      <tilted>0</tilted></_>
    <_>
      <rects>
        <_>
          0 3 3 5 -1.</_>
        <_>
          1 3 1 5 3.</_></rects>
      <tilted>0</tilted></_>
    <_>
      <rects>
        <_>
          0 3 15 15 -1.</_>
        <_>
          5 3 5 15 3.</_></rects>
      <tilted>0</tilted></_>
    <_>
      <rects>
        <_>
          0 4 32 10 -1.</_>
        <_>
          0 4 16 5 2.</_>
        <_>
          16 9 16 5 2.</_></rects>
      <tilted>0</tilted></_>
    <_>
      <rects>
        <_>
          0 9 30 11 -1.</_>
        <_>
          10 9 10 11 3.</_></rects>
      <tilted>0</tilted></_>
    <_>
      <rects>
        <_>
          0 20 10 3 -1.</_>
        <_>
          5 20 5 3 2.</_></rects>
      <tilted>0</tilted></_>
    <_>
      <rects>
        <_>
          0 22 1 2 -1.</_>
        <_>
          0 23 1 1 2.</_></rects>
      <tilted>0</tilted></_>
    <_>
      <rects>
        <_>
          1 0 3 2 -1.</_>
        <_>
          2 0 1 2 3.</_></rects>
      <tilted>0</tilted></_>
    <_>
      <rects>
        <_>
          1 2 30 1 -1.</_>
        <_>
          11 2 10 1 3.</_></rects>
      <tilted>0</tilted></_>
    <_>
      <rects>
        <_>
          1 10 9 4 -1.</_>
        <_>
          1 12 9 2 2.</_></rects>
      <tilted>0</tilted></_>
    <_>
      <rects>
        <_>
          1 10 30 10 -1.</_>
        <_>
          11 10 10 10 3.</_></rects>
      <tilted>0</tilted></_>
    <_>
      <rects>
        <_>
          1 20 1 4 -1.</_>
        <_>
          1 22 1 2 2.</_></rects>
      <tilted>0</tilted></_>
    <_>
      <rects>
        <_>
          2 0 27 22 -1.</_>
        <_>
          11 0 9 22 3.</_></rects>
      <tilted>0</tilted></_>
    <_>
      <rects>
        <_>
          2 3 27 18 -1.</_>
        <_>
          11 3 9 18 3.</_></rects>
      <tilted>0</tilted></_>
    <_>
      <rects>
        <_>
          2 4 18 16 -1.</_>
        <_>
          8 4 6 16 3.</_></rects>
      <tilted>0</tilted></_>
    <_>
      <rects>
        <_>
          2 4 24 10 -1.</_>
        <_>
          2 4 12 5 2.</_>
        <_>
          14 9 12 5 2.</_></rects>
      <tilted>0</tilted></_>
    <_>
      <rects>
        <_>
          2 7 18 4 -1.</_>
        <_>
          2 7 9 2 2.</_>
        <_>
          11 9 9 2 2.</_></rects>
      <tilted>0</tilted></_>
    <_>
      <rects>
        <_>
          2 8 20 8 -1.</_>
        <_>
          2 8 10 4 2.</_>
        <_>
          12 12 10 4 2.</_></rects>
      <tilted>0</tilted></_>
    <_>
      <rects>
        <_>
          2 21 7 3 -1.</_>
        <_>
          2 22 7 1 3.</_></rects>
      <tilted>0</tilted></_>
    <_>
      <rects>
        <_>
          3 0 3 8 -1.</_>
        <_>
          4 0 1 8 3.</_></rects>
      <tilted>0</tilted></_>
    <_>
      <rects>
        <_>
          3 2 2 1 -1.</_>
        <_>
          4 2 1 1 2.</_></rects>
      <tilted>0</tilted></_>
    <_>
      <rects>
        <_>
          3 3 24 20 -1.</_>
        <_>
          11 3 8 20 3.</_></rects>
      <tilted>0</tilted></_>
    <_>
      <rects>
        <_>
          3 10 24 13 -1.</_>
        <_>
          11 10 8 13 3.</_></rects>
      <tilted>0</tilted></_>
    <_>
      <rects>
        <_>
          3 16 9 8 -1.</_>
        <_>
          3 20 9 4 2.</_></rects>
      <tilted>0</tilted></_>
    <_>
      <rects>
        <_>
          3 21 1 3 -1.</_>
        <_>
          3 22 1 1 3.</_></rects>
      <tilted>0</tilted></_>
    <_>
      <rects>
        <_>
          4 2 24 2 -1.</_>
        <_>
          12 2 8 2 3.</_></rects>
      <tilted>0</tilted></_>
    <_>
      <rects>
        <_>
          4 8 6 4 -1.</_>
        <_>
          7 8 3 4 2.</_></rects>
      <tilted>0</tilted></_>
    <_>
      <rects>
        <_>
          4 23 2 1 -1.</_>
        <_>
          5 23 1 1 2.</_></rects>
      <tilted>0</tilted></_>
    <_>
      <rects>
        <_>
          5 0 8 6 -1.</_>
        <_>
          5 0 4 3 2.</_>
        <_>
          9 3 4 3 2.</_></rects>
      <tilted>0</tilted></_>
    <_>
      <rects>
        <_>
          5 1 2 2 -1.</_>
        <_>
          5 1 1 1 2.</_>
        <_>
          6 2 1 1 2.</_></rects>
      <tilted>0</tilted></_>
    <_>
      <rects>
        <_>
          5 1 21 22 -1.</_>
        <_>
          12 1 7 22 3.</_></rects>
      <tilted>0</tilted></_>
    <_>
      <rects>
        <_>
          5 2 12 2 -1.</_>
        <_>
          11 2 6 2 2.</_></rects>
      <tilted>0</tilted></_>
    <_>
      <rects>
        <_>
          5 4 12 6 -1.</_>
        <_>
          5 6 12 2 3.</_></rects>
      <tilted>0</tilted></_>
    <_>
      <rects>
        <_>
          5 6 6 18 -1.</_>
        <_>
          7 6 2 18 3.</_></rects>
      <tilted>0</tilted></_>
    <_>
      <rects>
        <_>
          5 7 3 10 -1.</_>
        <_>
          6 7 1 10 3.</_></rects>
      <tilted>0</tilted></_>
    <_>
      <rects>
        <_>
          5 10 16 6 -1.</_>
        <_>
          5 12 16 2 3.</_></rects>
      <tilted>0</tilted></_>
    <_>
      <rects>
        <_>
          6 0 3 2 -1.</_>
        <_>
          6 1 3 1 2.</_></rects>
      <tilted>0</tilted></_>
    <_>
      <rects>
        <_>
          6 0 20 2 -1.</_>
        <_>
          6 1 20 1 2.</_></rects>
      <tilted>0</tilted></_>
    <_>
      <rects>
        <_>
          6 4 4 1 -1.</_>
        <_>
          8 4 2 1 2.</_></rects>
      <tilted>0</tilted></_>
    <_>
      <rects>
        <_>
          6 7 24 4 -1.</_>
        <_>
          14 7 8 4 3.</_></rects>
      <tilted>0</tilted></_>
    <_>
      <rects>
        <_>
          6 11 13 2 -1.</_>
        <_>
          6 12 13 1 2.</_></rects>
      <tilted>0</tilted></_>
    <_>
      <rects>
        <_>
          7 0 9 10 -1.</_>
        <_>
          10 0 3 10 3.</_></rects>
      <tilted>0</tilted></_>
    <_>
      <rects>
        <_>
          7 14 12 7 -1.</_>
        <_>
          11 14 4 7 3.</_></rects>
      <tilted>0</tilted></_>
    <_>
      <rects>
        <_>
          7 15 6 3 -1.</_>
        <_>
          10 15 3 3 2.</_></rects>
      <tilted>0</tilted></_>
    <_>
      <rects>
        <_>
          7 16 12 6 -1.</_>
        <_>
          11 16 4 6 3.</_></rects>
      <tilted>0</tilted></_>
    <_>
      <rects>
        <_>
          7 16 5 6 -1.</_>
        <_>
          7 19 5 3 2.</_></rects>
      <tilted>0</tilted></_>
    <_>
      <rects>
        <_>
          7 18 2 1 -1.</_>
        <_>
          8 18 1 1 2.</_></rects>
      <tilted>0</tilted></_>
    <_>
      <rects>
        <_>
          8 0 11 6 -1.</_>
        <_>
          8 2 11 2 3.</_></rects>
      <tilted>0</tilted></_>
    <_>
      <rects>
        <_>
          8 0 23 6 -1.</_>
        <_>
          8 2 23 2 3.</_></rects>
      <tilted>0</tilted></_>
    <_>
      <rects>
        <_>
          8 1 13 6 -1.</_>
        <_>
          8 3 13 2 3.</_></rects>
      <tilted>0</tilted></_>
    <_>
      <rects>
        <_>
          8 20 2 2 -1.</_>
        <_>
          8 20 1 1 2.</_>
        <_>
          9 21 1 1 2.</_></rects>
      <tilted>0</tilted></_>
    <_>
      <rects>
        <_>
          9 0 21 24 -1.</_>
        <_>
          16 0 7 24 3.</_></rects>
      <tilted>0</tilted></_>
    <_>
      <rects>
        <_>
          9 0 15 6 -1.</_>
        <_>
          9 3 15 3 2.</_></rects>
      <tilted>0</tilted></_>
    <_>
      <rects>
        <_>
          9 2 12 14 -1.</_>
        <_>
          9 9 12 7 2.</_></rects>
      <tilted>0</tilted></_>
    <_>
      <rects>
        <_>
          9 4 20 6 -1.</_>
        <_>
          9 6 20 2 3.</_></rects>
      <tilted>0</tilted></_>
    <_>
      <rects>
        <_>
          9 5 6 19 -1.</_>
        <_>
          11 5 2 19 3.</_></rects>
      <tilted>0</tilted></_>
    <_>
      <rects>
        <_>
          9 9 12 3 -1.</_>
        <_>
          9 10 12 1 3.</_></rects>
      <tilted>0</tilted></_>
    <_>
      <rects>
        <_>
          9 15 20 3 -1.</_>
        <_>
          9 16 20 1 3.</_></rects>
      <tilted>0</tilted></_>
    <_>
      <rects>
        <_>
          10 5 4 13 -1.</_>
        <_>
          12 5 2 13 2.</_></rects>
      <tilted>0</tilted></_>
    <_>
      <rects>
        <_>
          10 9 8 3 -1.</_>
        <_>
          10 10 8 1 3.</_></rects>
      <tilted>0</tilted></_>
    <_>
      <rects>
        <_>
          10 9 10 3 -1.</_>
        <_>
          10 10 10 1 3.</_></rects>
      <tilted>0</tilted></_>
    <_>
      <rects>
        <_>
          10 12 21 6 -1.</_>
        <_>
          17 12 7 6 3.</_></rects>
      <tilted>0</tilted></_>
    <_>
      <rects>
        <_>
          10 14 3 3 -1.</_>
        <_>
          10 15 3 1 3.</_></rects>
      <tilted>0</tilted></_>
    <_>
      <rects>
        <_>
          11 0 6 7 -1.</_>
        <_>
          13 0 2 7 3.</_></rects>
      <tilted>0</tilted></_>
    <_>
      <rects>
        <_>
          11 0 8 4 -1.</_>
        <_>
          11 2 8 2 2.</_></rects>
      <tilted>0</tilted></_>
    <_>
      <rects>
        <_>
          11 5 6 2 -1.</_>
        <_>
          14 5 3 2 2.</_></rects>
      <tilted>0</tilted></_>
    <_>
      <rects>
        <_>
          11 11 7 9 -1.</_>
        <_>
          11 14 7 3 3.</_></rects>
      <tilted>0</tilted></_>
    <_>
      <rects>
        <_>
          12 4 1 6 -1.</_>
        <_>
          12 6 1 2 3.</_></rects>
      <tilted>0</tilted></_>
    <_>
      <rects>
        <_>
          12 6 6 18 -1.</_>
        <_>
          12 12 6 6 3.</_></rects>
      <tilted>0</tilted></_>
    <_>
      <rects>
        <_>
          12 17 4 3 -1.</_>
        <_>
          12 18 4 1 3.</_></rects>
      <tilted>0</tilted></_>
    <_>
      <rects>
        <_>
          13 21 18 2 -1.</_>
        <_>
          19 21 6 2 3.</_></rects>
      <tilted>0</tilted></_>
    <_>
      <rects>
        <_>
          14 0 4 21 -1.</_>
        <_>
          14 7 4 7 3.</_></rects>
      <tilted>0</tilted></_>
    <_>
      <rects>
        <_>
          14 1 12 8 -1.</_>
        <_>
          14 1 6 4 2.</_>
        <_>
          20 5 6 4 2.</_></rects>
      <tilted>0</tilted></_>
    <_>
      <rects>
        <_>
          14 2 16 2 -1.</_>
        <_>
          22 2 8 2 2.</_></rects>
      <tilted>0</tilted></_>
    <_>
      <rects>
        <_>
          14 9 2 2 -1.</_>
        <_>
          14 9 1 1 2.</_>
        <_>
          15 10 1 1 2.</_></rects>
      <tilted>0</tilted></_>
    <_>
      <rects>
        <_>
          15 0 3 2 -1.</_>
        <_>
          16 0 1 2 3.</_></rects>
      <tilted>0</tilted></_>
    <_>
      <rects>
        <_>
          15 0 4 3 -1.</_>
        <_>
          15 1 4 1 3.</_></rects>
      <tilted>0</tilted></_>
    <_>
      <rects>
        <_>
          15 1 10 6 -1.</_>
        <_>
          15 1 5 3 2.</_>
        <_>
          20 4 5 3 2.</_></rects>
      <tilted>0</tilted></_>
    <_>
      <rects>
        <_>
          15 15 2 1 -1.</_>
        <_>
          16 15 1 1 2.</_></rects>
      <tilted>0</tilted></_>
    <_>
      <rects>
        <_>
          16 1 1 4 -1.</_>
        <_>
          16 3 1 2 2.</_></rects>
      <tilted>0</tilted></_>
    <_>
      <rects>
        <_>
          16 8 2 9 -1.</_>
        <_>
          16 11 2 3 3.</_></rects>
      <tilted>0</tilted></_>
    <_>
      <rects>
        <_>
          16 12 6 2 -1.</_>
        <_>
          19 12 3 2 2.</_></rects>
      <tilted>0</tilted></_>
    <_>
      <rects>
        <_>
          17 4 9 20 -1.</_>
        <_>
          20 4 3 20 3.</_></rects>
      <tilted>0</tilted></_>
    <_>
      <rects>
        <_>
          17 10 1 3 -1.</_>
        <_>
          17 11 1 1 3.</_></rects>
      <tilted>0</tilted></_>
    <_>
      <rects>
        <_>
          18 3 6 6 -1.</_>
        <_>
          18 3 3 3 2.</_>
        <_>
          21 6 3 3 2.</_></rects>
      <tilted>0</tilted></_>
    <_>
      <rects>
        <_>
          18 20 14 3 -1.</_>
        <_>
          25 20 7 3 2.</_></rects>
      <tilted>0</tilted></_>
    <_>
      <rects>
        <_>
          18 21 14 1 -1.</_>
        <_>
          25 21 7 1 2.</_></rects>
      <tilted>0</tilted></_>
    <_>
      <rects>
        <_>
          19 1 10 4 -1.</_>
        <_>
          19 1 5 2 2.</_>
        <_>
          24 3 5 2 2.</_></rects>
      <tilted>0</tilted></_>
    <_>
      <rects>
        <_>
          19 5 2 4 -1.</_>
        <_>
          19 5 1 2 2.</_>
        <_>
          20 7 1 2 2.</_></rects>
      <tilted>0</tilted></_>
    <_>
      <rects>
        <_>
          20 0 2 24 -1.</_>
        <_>
          20 8 2 8 3.</_></rects>
      <tilted>0</tilted></_>
    <_>
      <rects>
        <_>
          20 5 4 6 -1.</_>
        <_>
          22 5 2 6 2.</_></rects>
      <tilted>0</tilted></_>
    <_>
      <rects>
        <_>
          20 18 6 1 -1.</_>
        <_>
          22 18 2 1 3.</_></rects>
      <tilted>0</tilted></_>
    <_>
      <rects>
        <_>
          22 11 2 10 -1.</_>
        <_>
          22 11 1 5 2.</_>
        <_>
          23 16 1 5 2.</_></rects>
      <tilted>0</tilted></_>
    <_>
      <rects>
        <_>
          22 16 8 8 -1.</_>
        <_>
          22 20 8 4 2.</_></rects>
      <tilted>0</tilted></_>
    <_>
      <rects>
        <_>
          23 2 2 3 -1.</_>
        <_>
          24 2 1 3 2.</_></rects>
      <tilted>0</tilted></_>
    <_>
      <rects>
        <_>
          23 5 5 4 -1.</_>
        <_>
          23 7 5 2 2.</_></rects>
      <tilted>0</tilted></_>
    <_>
      <rects>
        <_>
          23 14 2 2 -1.</_>
        <_>
          23 14 1 1 2.</_>
        <_>
          24 15 1 1 2.</_></rects>
      <tilted>0</tilted></_>
    <_>
      <rects>
        <_>
          23 20 2 2 -1.</_>
        <_>
          23 20 1 1 2.</_>
        <_>
          24 21 1 1 2.</_></rects>
      <tilted>0</tilted></_>
    <_>
      <rects>
        <_>
          24 5 6 4 -1.</_>
        <_>
          24 7 6 2 2.</_></rects>
      <tilted>0</tilted></_>
    <_>
      <rects>
        <_>
          25 0 6 2 -1.</_>
        <_>
          25 0 3 1 2.</_>
        <_>
          28 1 3 1 2.</_></rects>
      <tilted>0</tilted></_>
    <_>
      <rects>
        <_>
          25 2 2 6 -1.</_>
        <_>
          25 5 2 3 2.</_></rects>
      <tilted>0</tilted></_>
    <_>
      <rects>
        <_>
          25 7 3 3 -1.</_>
        <_>
          26 7 1 3 3.</_></rects>
      <tilted>0</tilted></_>
    <_>
      <rects>
        <_>
          26 2 6 1 -1.</_>
        <_>
          29 2 3 1 2.</_></rects>
      <tilted>0</tilted></_>
    <_>
      <rects>
        <_>
          26 16 4 2 -1.</_>
        <_>
          26 16 2 1 2.</_>
        <_>
          28 17 2 1 2.</_></rects>
      <tilted>0</tilted></_>
    <_>
      <rects>
        <_>
          27 4 3 7 -1.</_>
        <_>
          28 4 1 7 3.</_></rects>
      <tilted>0</tilted></_>
    <_>
      <rects>
        <_>
          27 13 4 4 -1.</_>
        <_>
          27 15 4 2 2.</_></rects>
      <tilted>0</tilted></_>
    <_>
      <rects>
        <_>
          27 15 2 4 -1.</_>
        <_>
          27 15 1 2 2.</_>
        <_>
          28 17 1 2 2.</_></rects>
      <tilted>0</tilted></_>
    <_>
      <rects>
        <_>
          27 22 1 2 -1.</_>
        <_>
          27 23 1 1 2.</_></rects>
      <tilted>0</tilted></_>
    <_>
      <rects>
        <_>
          28 1 4 15 -1.</_>
        <_>
          28 6 4 5 3.</_></rects>
      <tilted>0</tilted></_>
    <_>
      <rects>
        <_>
          28 2 2 2 -1.</_>
        <_>
          28 3 2 1 2.</_></rects>
      <tilted>0</tilted></_>
    <_>
      <rects>
        <_>
          28 4 3 7 -1.</_>
        <_>
          29 4 1 7 3.</_></rects>
      <tilted>0</tilted></_>
    <_>
      <rects>
        <_>
          29 1 2 9 -1.</_>
        <_>
          30 1 1 9 2.</_></rects>
      <tilted>0</tilted></_>
    <_>
      <rects>
        <_>
          29 1 2 15 -1.</_>
        <_>
          29 6 2 5 3.</_></rects>
      <tilted>0</tilted></_>
    <_>
      <rects>
        <_>
          29 2 2 2 -1.</_>
        <_>
          29 3 2 1 2.</_></rects>
      <tilted>0</tilted></_>
    <_>
      <rects>
        <_>
          29 9 2 9 -1.</_>
        <_>
          29 12 2 3 3.</_></rects>
      <tilted>0</tilted></_>
    <_>
      <rects>
        <_>
          30 19 1 2 -1.</_>
        <_>
          30 20 1 1 2.</_></rects>
      <tilted>0</tilted></_>
    <_>
      <rects>
        <_>
          31 1 1 6 -1.</_>
        <_>
          31 4 1 3 2.</_></rects>
      <tilted>0</tilted></_></features></cascade>
</opencv_storage>
