<?xml version="1.0"?>
<opencv_storage>
<stage18>
  <maxWeakCount>7</maxWeakCount>
  <stageThreshold>-9.8988151550292969e-01</stageThreshold>
  <weakClassifiers>
    <_>
      <internalNodes>
        0 -1 234169 -1.4833476394414902e-02</internalNodes>
      <leafValues>
        3.3333334326744080e-01 -6.6101694107055664e-01</leafValues></_>
    <_>
      <internalNodes>
        0 -1 101926 1.0866134289244656e-05</internalNodes>
      <leafValues>
        -4.0651202201843262e-01 2.8341630101203918e-01</leafValues></_>
    <_>
      <internalNodes>
        0 -1 29197 -7.7639135997742414e-04</internalNodes>
      <leafValues>
        -4.8995676636695862e-01 2.5506040453910828e-01</leafValues></_>
    <_>
      <internalNodes>
        0 -1 1436 -3.4717451781034470e-03</internalNodes>
      <leafValues>
        3.2774904370307922e-01 -4.3428930640220642e-01</leafValues></_>
    <_>
      <internalNodes>
        0 -1 97661 -2.7375450372346677e-05</internalNodes>
      <leafValues>
        -3.8199621438980103e-01 3.3995008468627930e-01</leafValues></_>
    <_>
      <internalNodes>
        0 -1 149814 -1.7821984365582466e-03</internalNodes>
      <leafValues>
        3.8284820318222046e-01 -3.5818266868591309e-01</leafValues></_>
    <_>
      <internalNodes>
        0 -1 282607 -3.3933501981664449e-05</internalNodes>
      <leafValues>
        3.5039886832237244e-01 -4.1481932997703552e-01</leafValues></_></weakClassifiers></stage18>
</opencv_storage>
