<?xml version="1.0"?>
<opencv_storage>
<stage2>
  <maxWeakCount>5</maxWeakCount>
  <stageThreshold>-1.0183628797531128e+00</stageThreshold>
  <weakClassifiers>
    <_>
      <internalNodes>
        0 -1 39161 -5.3235387802124023e-01</internalNodes>
      <leafValues>
        8.3783781528472900e-01 -7.1671390533447266e-01</leafValues></_>
    <_>
      <internalNodes>
        0 -1 98540 -9.0444982051849365e-03</internalNodes>
      <leafValues>
        6.0743218660354614e-01 -4.6174472570419312e-01</leafValues></_>
    <_>
      <internalNodes>
        0 -1 285372 1.4609412755817175e-03</internalNodes>
      <leafValues>
        2.4463553726673126e-01 -7.8744423389434814e-01</leafValues></_>
    <_>
      <internalNodes>
        0 -1 92987 1.5806049108505249e-02</internalNodes>
      <leafValues>
        -3.6592128872871399e-01 5.6210589408874512e-01</leafValues></_>
    <_>
      <internalNodes>
        0 -1 283366 -1.6989091411232948e-02</internalNodes>
      <leafValues>
        -7.8779542446136475e-01 3.4211137890815735e-01</leafValues></_></weakClassifiers></stage2>
</opencv_storage>
