<?xml version="1.0"?>
<opencv_storage>
<stage16>
  <maxWeakCount>8</maxWeakCount>
  <stageThreshold>-1.0005522966384888e+00</stageThreshold>
  <weakClassifiers>
    <_>
      <internalNodes>
        0 -1 249359 2.8713732957839966e-02</internalNodes>
      <leafValues>
        -6.1477571725845337e-01 1.</leafValues></_>
    <_>
      <internalNodes>
        0 -1 124014 -7.7331149950623512e-03</internalNodes>
      <leafValues>
        3.3471298217773438e-01 -3.9927423000335693e-01</leafValues></_>
    <_>
      <internalNodes>
        0 -1 282710 -6.6700325987767428e-05</internalNodes>
      <leafValues>
        -6.8713468313217163e-01 1.9186049699783325e-01</leafValues></_>
    <_>
      <internalNodes>
        0 -1 82910 -1.0089611634612083e-02</internalNodes>
      <leafValues>
        5.0629496574401855e-01 -2.6061862707138062e-01</leafValues></_>
    <_>
      <internalNodes>
        0 -1 206203 6.3075171783566475e-04</internalNodes>
      <leafValues>
        2.3425073921680450e-01 -7.0458334684371948e-01</leafValues></_>
    <_>
      <internalNodes>
        0 -1 83884 1.0226432641502470e-04</internalNodes>
      <leafValues>
        1.7915707826614380e-01 -7.0294678211212158e-01</leafValues></_>
    <_>
      <internalNodes>
        0 -1 242438 -1.3436777226161212e-04</internalNodes>
      <leafValues>
        -5.6326425075531006e-01 2.1541261672973633e-01</leafValues></_>
    <_>
      <internalNodes>
        0 -1 221943 -1.0545835830271244e-03</internalNodes>
      <leafValues>
        3.9226943254470825e-01 -3.5054689645767212e-01</leafValues></_></weakClassifiers></stage16>
</opencv_storage>
