<?xml version="1.0"?>
<opencv_storage>
<stage14>
  <maxWeakCount>8</maxWeakCount>
  <stageThreshold>-9.4226509332656860e-01</stageThreshold>
  <weakClassifiers>
    <_>
      <internalNodes>
        0 -1 155882 -3.7808328866958618e-02</internalNodes>
      <leafValues>
        6.1904764175415039e-01 -6.3685637712478638e-01</leafValues></_>
    <_>
      <internalNodes>
        0 -1 178260 1.7079876270145178e-03</internalNodes>
      <leafValues>
        -5.1780241727828979e-01 2.9108169674873352e-01</leafValues></_>
    <_>
      <internalNodes>
        0 -1 274390 -2.3753480490995571e-05</internalNodes>
      <leafValues>
        3.1643536686897278e-01 -4.4308030605316162e-01</leafValues></_>
    <_>
      <internalNodes>
        0 -1 112014 -2.5391297414898872e-02</internalNodes>
      <leafValues>
        4.9497407674789429e-01 -2.7145639061927795e-01</leafValues></_>
    <_>
      <internalNodes>
        0 -1 123161 1.7896130681037903e-02</internalNodes>
      <leafValues>
        -2.8504356741905212e-01 5.3375822305679321e-01</leafValues></_>
    <_>
      <internalNodes>
        0 -1 105019 -3.1460370868444443e-02</internalNodes>
      <leafValues>
        4.7359552979469299e-01 -3.3471652865409851e-01</leafValues></_>
    <_>
      <internalNodes>
        0 -1 265445 1.8030373030342162e-04</internalNodes>
      <leafValues>
        2.7388438582420349e-01 -5.4954731464385986e-01</leafValues></_>
    <_>
      <internalNodes>
        0 -1 4462 -6.2528036534786224e-02</internalNodes>
      <leafValues>
        6.0368227958679199e-01 -2.3859250545501709e-01</leafValues></_></weakClassifiers></stage14>
</opencv_storage>
