<?xml version="1.0"?>
<opencv_storage>
<cascade>
  <stageType>BOOST</stageType>
  <featureType>HAAR</featureType>
  <height>24</height>
  <width>32</width>
  <stageParams>
    <boostType>GAB</boostType>
    <minHitRate>9.9500000476837158e-01</minHitRate>
    <maxFalseAlarm>5.0000000000000000e-01</maxFalseAlarm>
    <weightTrimRate>9.4999998807907104e-01</weightTrimRate>
    <maxDepth>1</maxDepth>
    <maxWeakCount>100</maxWeakCount></stageParams>
  <featureParams>
    <maxCatCount>0</maxCatCount>
    <featSize>1</featSize>
    <mode>BASIC</mode></featureParams>
  <stageNum>13</stageNum>
  <stages>
    <!-- stage 0 -->
    <_>
      <maxWeakCount>3</maxWeakCount>
      <stageThreshold>-1.2336747646331787e+00</stageThreshold>
      <weakClassifiers>
        <_>
          <internalNodes>
            0 -1 10 -1.7862701416015625e-01</internalNodes>
          <leafValues>
            8.9215683937072754e-01 -9.7324413061141968e-01</leafValues></_>
        <_>
          <internalNodes>
            0 -1 13 -5.2963208407163620e-02</internalNodes>
          <leafValues>
            6.9133371114730835e-01 -9.5131772756576538e-01</leafValues></_>
        <_>
          <internalNodes>
            0 -1 16 -7.2389198467135429e-03</internalNodes>
          <leafValues>
            6.9088715314865112e-01 -8.8720917701721191e-01</leafValues></_></weakClassifiers></_>
    <!-- stage 1 -->
    <_>
      <maxWeakCount>3</maxWeakCount>
      <stageThreshold>-1.3515499830245972e+00</stageThreshold>
      <weakClassifiers>
        <_>
          <internalNodes>
            0 -1 11 -2.9544687271118164e-01</internalNodes>
          <leafValues>
            8.4466022253036499e-01 -9.5286196470260620e-01</leafValues></_>
        <_>
          <internalNodes>
            0 -1 12 -6.0771986842155457e-02</internalNodes>
          <leafValues>
            6.7027020454406738e-01 -8.8781148195266724e-01</leafValues></_>
        <_>
          <internalNodes>
            0 -1 20 8.0073267221450806e-02</internalNodes>
          <leafValues>
            -1. 4.8912340402603149e-01</leafValues></_></weakClassifiers></_>
    <!-- stage 2 -->
    <_>
      <maxWeakCount>2</maxWeakCount>
      <stageThreshold>-4.1724455356597900e-01</stageThreshold>
      <weakClassifiers>
        <_>
          <internalNodes>
            0 -1 6 -4.9024569988250732e-01</internalNodes>
          <leafValues>
            5.9656649827957153e-01 -9.1851854324340820e-01</leafValues></_>
        <_>
          <internalNodes>
            0 -1 1 2.8914175927639008e-03</internalNodes>
          <leafValues>
            -1. 5.0127398967742920e-01</leafValues></_></weakClassifiers></_>
    <!-- stage 3 -->
    <_>
      <maxWeakCount>4</maxWeakCount>
      <stageThreshold>-3.7950924038887024e-01</stageThreshold>
      <weakClassifiers>
        <_>
          <internalNodes>
            0 -1 4 -6.3846878707408905e-02</internalNodes>
          <leafValues>
            5.0000000000000000e-01 -9.5951414108276367e-01</leafValues></_>
        <_>
          <internalNodes>
            0 -1 7 -4.8392437747679651e-05</internalNodes>
          <leafValues>
            3.7226518988609314e-01 -1.</leafValues></_>
        <_>
          <internalNodes>
            0 -1 9 -3.1179350614547729e-01</internalNodes>
          <leafValues>
            9.1617244482040405e-01 -6.1839431524276733e-01</leafValues></_>
        <_>
          <internalNodes>
            0 -1 18 -2.3478856682777405e-01</internalNodes>
          <leafValues>
            8.2613408565521240e-01 -6.5096831321716309e-01</leafValues></_></weakClassifiers></_>
    <!-- stage 4 -->
    <_>
      <maxWeakCount>3</maxWeakCount>
      <stageThreshold>-9.3622875213623047e-01</stageThreshold>
      <weakClassifiers>
        <_>
          <internalNodes>
            0 -1 19 -1.8732853233814240e-02</internalNodes>
          <leafValues>
            7.9746836423873901e-01 -6.8115943670272827e-01</leafValues></_>
        <_>
          <internalNodes>
            0 -1 15 -9.0867355465888977e-02</internalNodes>
          <leafValues>
            6.3636338710784912e-01 -7.2874420881271362e-01</leafValues></_>
        <_>
          <internalNodes>
            0 -1 26 -1.3658554962603375e-05</internalNodes>
          <leafValues>
            4.7367483377456665e-01 -9.9466758966445923e-01</leafValues></_></weakClassifiers></_>
    <!-- stage 5 -->
    <_>
      <maxWeakCount>2</maxWeakCount>
      <stageThreshold>-6.1291372776031494e-01</stageThreshold>
      <weakClassifiers>
        <_>
          <internalNodes>
            0 -1 14 -4.0067388908937573e-04</internalNodes>
          <leafValues>
            -9.4618833065032959e-01 3.6428570747375488e-01</leafValues></_>
        <_>
          <internalNodes>
            0 -1 23 2.1654122974723577e-04</internalNodes>
          <leafValues>
            -1. 3.3327460289001465e-01</leafValues></_></weakClassifiers></_>
    <!-- stage 6 -->
    <_>
      <maxWeakCount>2</maxWeakCount>
      <stageThreshold>-4.1728985309600830e-01</stageThreshold>
      <weakClassifiers>
        <_>
          <internalNodes>
            0 -1 25 5.6802935432642698e-04</internalNodes>
          <leafValues>
            4.8461538553237915e-01 -9.6707820892333984e-01</leafValues></_>
        <_>
          <internalNodes>
            0 -1 17 8.6753111099824309e-04</internalNodes>
          <leafValues>
            -8.1875967979431152e-01 5.4978835582733154e-01</leafValues></_></weakClassifiers></_>
    <!-- stage 7 -->
    <_>
      <maxWeakCount>1</maxWeakCount>
      <stageThreshold>4.3272727727890015e-01</stageThreshold>
      <weakClassifiers>
        <_>
          <internalNodes>
            0 -1 24 2.7584191411733627e-04</internalNodes>
          <leafValues>
            4.3272727727890015e-01 -1.</leafValues></_></weakClassifiers></_>
    <!-- stage 8 -->
    <_>
      <maxWeakCount>2</maxWeakCount>
      <stageThreshold>-3.8463264703750610e-01</stageThreshold>
      <weakClassifiers>
        <_>
          <internalNodes>
            0 -1 5 -9.9549051374197006e-03</internalNodes>
          <leafValues>
            4.6382978558540344e-01 -8.1343281269073486e-01</leafValues></_>
        <_>
          <internalNodes>
            0 -1 24 -3.2255478436127305e-04</internalNodes>
          <leafValues>
            -1. 4.2880019545555115e-01</leafValues></_></weakClassifiers></_>
    <!-- stage 9 -->
    <_>
      <maxWeakCount>1</maxWeakCount>
      <stageThreshold>3.7762236595153809e-01</stageThreshold>
      <weakClassifiers>
        <_>
          <internalNodes>
            0 -1 8 3.4034608688671142e-05</internalNodes>
          <leafValues>
            -1. 3.7762236595153809e-01</leafValues></_></weakClassifiers></_>
    <!-- stage 10 -->
    <_>
      <maxWeakCount>4</maxWeakCount>
      <stageThreshold>-1.1065088510513306e+00</stageThreshold>
      <weakClassifiers>
        <_>
          <internalNodes>
            0 -1 21 -1.3056761585175991e-02</internalNodes>
          <leafValues>
            3.8461539149284363e-01 -9.3043476343154907e-01</leafValues></_>
        <_>
          <internalNodes>
            0 -1 8 6.1825790908187628e-04</internalNodes>
          <leafValues>
            3.3450186252593994e-01 -9.7077220678329468e-01</leafValues></_>
        <_>
          <internalNodes>
            0 -1 0 -2.2931431885808706e-05</internalNodes>
          <leafValues>
            3.5381248593330383e-01 -9.5622116327285767e-01</leafValues></_>
        <_>
          <internalNodes>
            0 -1 3 4.0810482460074127e-05</internalNodes>
          <leafValues>
            -9.5698928833007813e-01 4.4564518332481384e-01</leafValues></_></weakClassifiers></_>
    <!-- stage 11 -->
    <_>
      <maxWeakCount>1</maxWeakCount>
      <stageThreshold>3.3559322357177734e-01</stageThreshold>
      <weakClassifiers>
        <_>
          <internalNodes>
            0 -1 27 -7.5800350168719888e-04</internalNodes>
          <leafValues>
            3.3559322357177734e-01 -1.</leafValues></_></weakClassifiers></_>
    <!-- stage 12 -->
    <_>
      <maxWeakCount>2</maxWeakCount>
      <stageThreshold>-3.5451123118400574e-01</stageThreshold>
      <weakClassifiers>
        <_>
          <internalNodes>
            0 -1 22 -5.5923447944223881e-03</internalNodes>
          <leafValues>
            6.2921351194381714e-01 -6.8000000715255737e-01</leafValues></_>
        <_>
          <internalNodes>
            0 -1 2 1.1896048672497272e-03</internalNodes>
          <leafValues>
            4.3578994274139404e-01 -9.8372471332550049e-01</leafValues></_></weakClassifiers></_></stages>
  <features>
    <_>
      <rects>
        <_>
          0 0 6 2 -1.</_>
        <_>
          0 0 3 1 2.</_>
        <_>
          3 1 3 1 2.</_></rects>
      <tilted>0</tilted></_>
    <_>
      <rects>
        <_>
          0 0 10 13 -1.</_>
        <_>
          5 0 5 13 2.</_></rects>
      <tilted>0</tilted></_>
    <_>
      <rects>
        <_>
          0 2 1 14 -1.</_>
        <_>
          0 9 1 7 2.</_></rects>
      <tilted>0</tilted></_>
    <_>
      <rects>
        <_>
          0 4 1 10 -1.</_>
        <_>
          0 9 1 5 2.</_></rects>
      <tilted>0</tilted></_>
    <_>
      <rects>
        <_>
          0 13 18 4 -1.</_>
        <_>
          9 13 9 4 2.</_></rects>
      <tilted>0</tilted></_>
    <_>
      <rects>
        <_>
          0 16 12 8 -1.</_>
        <_>
          0 16 6 4 2.</_>
        <_>
          6 20 6 4 2.</_></rects>
      <tilted>0</tilted></_>
    <_>
      <rects>
        <_>
          1 3 30 21 -1.</_>
        <_>
          11 3 10 21 3.</_></rects>
      <tilted>0</tilted></_>
    <_>
      <rects>
        <_>
          1 19 1 4 -1.</_>
        <_>
          1 21 1 2 2.</_></rects>
      <tilted>0</tilted></_>
    <_>
      <rects>
        <_>
          2 11 8 1 -1.</_>
        <_>
          6 11 4 1 2.</_></rects>
      <tilted>0</tilted></_>
    <_>
      <rects>
        <_>
          3 7 24 9 -1.</_>
        <_>
          11 7 8 9 3.</_></rects>
      <tilted>0</tilted></_>
    <_>
      <rects>
        <_>
          4 1 14 21 -1.</_>
        <_>
          11 1 7 21 2.</_></rects>
      <tilted>0</tilted></_>
    <_>
      <rects>
        <_>
          4 4 24 20 -1.</_>
        <_>
          12 4 8 20 3.</_></rects>
      <tilted>0</tilted></_>
    <_>
      <rects>
        <_>
          6 10 10 9 -1.</_>
        <_>
          11 10 5 9 2.</_></rects>
      <tilted>0</tilted></_>
    <_>
      <rects>
        <_>
          6 10 12 6 -1.</_>
        <_>
          12 10 6 6 2.</_></rects>
      <tilted>0</tilted></_>
    <_>
      <rects>
        <_>
          7 10 2 8 -1.</_>
        <_>
          8 10 1 8 2.</_></rects>
      <tilted>0</tilted></_>
    <_>
      <rects>
        <_>
          7 10 10 9 -1.</_>
        <_>
          12 10 5 9 2.</_></rects>
      <tilted>0</tilted></_>
    <_>
      <rects>
        <_>
          8 16 3 8 -1.</_>
        <_>
          8 20 3 4 2.</_></rects>
      <tilted>0</tilted></_>
    <_>
      <rects>
        <_>
          9 17 6 2 -1.</_>
        <_>
          9 17 3 1 2.</_>
        <_>
          12 18 3 1 2.</_></rects>
      <tilted>0</tilted></_>
    <_>
      <rects>
        <_>
          10 0 13 22 -1.</_>
        <_>
          10 11 13 11 2.</_></rects>
      <tilted>0</tilted></_>
    <_>
      <rects>
        <_>
          14 4 6 9 -1.</_>
        <_>
          16 4 2 9 3.</_></rects>
      <tilted>0</tilted></_>
    <_>
      <rects>
        <_>
          14 5 18 10 -1.</_>
        <_>
          23 5 9 10 2.</_></rects>
      <tilted>0</tilted></_>
    <_>
      <rects>
        <_>
          18 14 10 8 -1.</_>
        <_>
          18 18 10 4 2.</_></rects>
      <tilted>0</tilted></_>
    <_>
      <rects>
        <_>
          20 12 6 9 -1.</_>
        <_>
          22 12 2 9 3.</_></rects>
      <tilted>0</tilted></_>
    <_>
      <rects>
        <_>
          22 2 8 5 -1.</_>
        <_>
          26 2 4 5 2.</_></rects>
      <tilted>0</tilted></_>
    <_>
      <rects>
        <_>
          23 0 8 2 -1.</_>
        <_>
          27 0 4 2 2.</_></rects>
      <tilted>0</tilted></_>
    <_>
      <rects>
        <_>
          24 2 4 6 -1.</_>
        <_>
          26 2 2 6 2.</_></rects>
      <tilted>0</tilted></_>
    <_>
      <rects>
        <_>
          30 0 2 1 -1.</_>
        <_>
          31 0 1 1 2.</_></rects>
      <tilted>0</tilted></_>
    <_>
      <rects>
        <_>
          30 15 2 8 -1.</_>
        <_>
          30 19 2 4 2.</_></rects>
      <tilted>0</tilted></_></features></cascade>
</opencv_storage>
