<?xml version="1.0"?>
<opencv_storage>
<cascade>
  <stageType>BOOST</stageType>
  <featureType>HAAR</featureType>
  <height>27</height>
  <width>36</width>
  <stageParams>
    <boostType>GAB</boostType>
    <minHitRate>9.9500000476837158e-01</minHitRate>
    <maxFalseAlarm>5.0000000000000000e-01</maxFalseAlarm>
    <weightTrimRate>9.4999998807907104e-01</weightTrimRate>
    <maxDepth>1</maxDepth>
    <maxWeakCount>100</maxWeakCount></stageParams>
  <featureParams>
    <maxCatCount>0</maxCatCount>
    <featSize>1</featSize>
    <mode>BASIC</mode></featureParams>
  <stageNum>4</stageNum>
  <stages>
    <!-- stage 0 -->
    <_>
      <maxWeakCount>1</maxWeakCount>
      <stageThreshold>9.8437500000000000e-01</stageThreshold>
      <weakClassifiers>
        <_>
          <internalNodes>
            0 -1 2 -1.3820623978972435e-02</internalNodes>
          <leafValues>
            9.8437500000000000e-01 -1.</leafValues></_></weakClassifiers></_>
    <!-- stage 1 -->
    <_>
      <maxWeakCount>2</maxWeakCount>
      <stageThreshold>-1.3359138369560242e-01</stageThreshold>
      <weakClassifiers>
        <_>
          <internalNodes>
            0 -1 5 5.6158816441893578e-03</internalNodes>
          <leafValues>
            -9.8666667938232422e-01 8.7969923019409180e-01</leafValues></_>
        <_>
          <internalNodes>
            0 -1 4 -9.2765744775533676e-03</internalNodes>
          <leafValues>
            8.5307526588439941e-01 -9.4870793819427490e-01</leafValues></_></weakClassifiers></_>
    <!-- stage 2 -->
    <_>
      <maxWeakCount>2</maxWeakCount>
      <stageThreshold>-1.8876357376575470e-01</stageThreshold>
      <weakClassifiers>
        <_>
          <internalNodes>
            0 -1 3 3.4769589547067881e-03</internalNodes>
          <leafValues>
            -9.2739272117614746e-01 7.8461539745330811e-01</leafValues></_>
        <_>
          <internalNodes>
            0 -1 6 -8.7479911744594574e-03</internalNodes>
          <leafValues>
            7.5738036632537842e-01 -9.7337895631790161e-01</leafValues></_></weakClassifiers></_>
    <!-- stage 3 -->
    <_>
      <maxWeakCount>2</maxWeakCount>
      <stageThreshold>-4.1009399294853210e-01</stageThreshold>
      <weakClassifiers>
        <_>
          <internalNodes>
            0 -1 1 -3.0508782714605331e-02</internalNodes>
          <leafValues>
            5.7499998807907104e-01 -9.9267399311065674e-01</leafValues></_>
        <_>
          <internalNodes>
            0 -1 0 -8.1136435270309448e-02</internalNodes>
          <leafValues>
            5.8257997035980225e-01 -9.7654455900192261e-01</leafValues></_></weakClassifiers></_></stages>
  <features>
    <_>
      <rects>
        <_>
          1 16 33 3 -1.</_>
        <_>
          12 16 11 3 3.</_></rects>
      <tilted>0</tilted></_>
    <_>
      <rects>
        <_>
          2 20 15 7 -1.</_>
        <_>
          7 20 5 7 3.</_></rects>
      <tilted>0</tilted></_>
    <_>
      <rects>
        <_>
          11 13 6 3 -1.</_>
        <_>
          14 13 3 3 2.</_></rects>
      <tilted>0</tilted></_>
    <_>
      <rects>
        <_>
          12 7 2 8 -1.</_>
        <_>
          12 7 1 4 2.</_>
        <_>
          13 11 1 4 2.</_></rects>
      <tilted>0</tilted></_>
    <_>
      <rects>
        <_>
          19 4 3 15 -1.</_>
        <_>
          20 4 1 15 3.</_></rects>
      <tilted>0</tilted></_>
    <_>
      <rects>
        <_>
          20 10 2 9 -1.</_>
        <_>
          21 10 1 9 2.</_></rects>
      <tilted>0</tilted></_>
    <_>
      <rects>
        <_>
          26 13 1 14 -1.</_>
        <_>
          26 20 1 7 2.</_></rects>
      <tilted>0</tilted></_></features></cascade>
</opencv_storage>
